svm_type c_svc
kernel_type linear
nr_class 2
total_sv 1530
rho 0.99990077888172524
label 1 -1
nr_sv 731 799
SV
10 1:0.30232617 2:-5.9131875 
10 1:0.16425195 2:-2.8780625 
10 1:0.23323633 2:-4.245875 
10 1:0.26739844 2:-3.47025 
10 1:0.23461914 2:-3.3475 
10 1:0.28325195 2:-4.861125 
10 1:0.33435352 2:-3.808875 
10 1:0.19907422 2:-3.6469375 
10 1:0.11708789 2:-2.7410625 
10 1:0.2636875 2:-4.38825 
10 1:0.30964648 2:-4.949125 
10 1:0.29937891 2:-5.5686875 
10 1:0.40496289 2:-6.0150625 
10 1:0.3134707 2:-3.9344375 
10 1:0.32455469 2:-6.3529375 
10 1:0.27851172 2:-5.1588125 
10 1:0.161375 2:-3.141875 
10 1:0.30006445 2:-4.989 
10 1:0.25207813 2:-5.338125 
10 1:0.24014258 2:-2.9931875 
10 1:0.39188867 2:-5.9671875 
10 1:0.20572852 2:-3.8619375 
10 1:0.34291211 2:-6.461375 
10 1:0.31355664 2:-4.3781875 
10 1:0.16754883 2:-3.00825 
10 1:0.2195957 2:-4.1358125 
10 1:0.15616016 2:-3.1676875 
10 1:0.16002539 2:-2.419375 
10 1:0.19980273 2:-2.6626875 
10 1:0.28785156 2:-4.107875 
10 1:0.1929668 2:-3.8806875 
10 1:0.17541602 2:-3.6166875 
10 1:0.34135156 2:-3.9849375 
10 1:0.29270117 2:-3.2854375 
10 1:0.26468555 2:-4.594875 
10 1:0.2980332 2:-4.735125 
10 1:0.37451172 2:-5.1918125 
10 1:0.36505469 2:-6.3261875 
10 1:0.22577344 2:-4.980125 
10 1:0.17110742 2:-3.0755625 
10 1:0.33290039 2:-3.62125 
10 1:0.32070508 2:-4.3083125 
10 1:0.46189453 2:-4.7460625 
10 1:0.34991016 2:-4.7875 
10 1:0.2875332 2:-5.1054375 
10 1:0.36113672 2:-5.1243125 
10 1:0.36351563 2:-4.783125 
10 1:0.18582227 2:-3.371625 
10 1:0.3866875 2:-5.8071875 
10 1:0.18260156 2:-3.7633125 
10 1:0.29004102 2:-4.75775 
10 1:0.19016016 2:-2.035125 
10 1:0.26513867 2:-4.947625 
10 1:0.27569727 2:-5.115 
10 1:0.22478906 2:-4.116125 
10 1:0.23526758 2:-3.806875 
10 1:0.22725781 2:-4.50175 
10 1:0.40533789 2:-6.4565 
10 1:0.13626172 2:-2.8964375 
10 1:0.18567383 2:-3.1919375 
10 1:0.23300781 2:-4.5359375 
10 1:0.29791797 2:-4.2606875 
10 1:0.13382422 2:-2.432 
10 1:0.27994922 2:-4.938125 
10 1:0.22071289 2:-3.80325 
10 1:0.15137891 2:-3.006625 
10 1:0.19955273 2:-3.771 
10 1:0.27325391 2:-4.1274375 
10 1:0.24926172 2:-4.9521875 
10 1:0.23277148 2:-3.7389375 
10 1:0.33430664 2:-5.211375 
10 1:0.25137305 2:-4.0179375 
10 1:0.35638672 2:-4.4035 
10 1:0.32558398 2:-5.3535625 
10 1:0.33105664 2:-4.730375 
10 1:0.22247266 2:-3.88825 
10 1:0.21736328 2:-4.1575 
10 1:0.25207227 2:-3.5475625 
10 1:0.31178906 2:-5.2914375 
10 1:0.42903711 2:-5.4879375 
10 1:0.34298242 2:-4.6171875 
10 1:0.31602344 2:-4.9779375 
10 1:0.20891211 2:-4.05275 
10 1:0.23894141 2:-3.915 
10 1:0.25526562 2:-5.0723125 
10 1:0.24241602 2:-4.259875 
10 1:0.32598828 2:-4.6885625 
10 1:0.28779688 2:-4.5116875 
10 1:0.20727734 2:-4.0871875 
10 1:0.17242188 2:-3.959375 
10 1:0.34061719 2:-4.7765625 
10 1:0.26540234 2:-4.78625 
10 1:0.34503711 2:-5.2139375 
10 1:0.35044531 2:-4.216 
10 1:0.27610742 2:-4.125 
10 1:0.31813086 2:-3.305625 
10 1:0.29736914 2:-3.4948125 
10 1:0.34364453 2:-4.4915 
10 1:0.25074023 2:-3.61675 
10 1:0.33061523 2:-4.770625 
10 1:0.32033008 2:-5.8004375 
10 1:0.32923242 2:-4.2795625 
10 1:0.30735742 2:-5.0974375 
10 1:0.37532617 2:-3.6785 
10 1:0.29718555 2:-5.8158125 
10 1:0.18749414 2:-3.6476875 
10 1:0.37076953 2:-6.1594375 
10 1:0.36164258 2:-6.250875 
10 1:0.19467773 2:-4.1794375 
10 1:0.17297461 2:-3.49175 
10 1:0.27598633 2:-4.2910625 
10 1:0.32173047 2:-4.30175 
10 1:0.30709375 2:-4.985375 
10 1:0.35232031 2:-6.1666875 
10 1:0.26931836 2:-4.2143125 
10 1:0.26952539 2:-5.3805 
10 1:0.30012305 2:-4.593625 
10 1:0.39472266 2:-4.070375 
10 1:0.25833789 2:-4.347125 
10 1:0.29372266 2:-4.1110625 
10 1:0.16129102 2:-2.2840625 
10 1:0.35225586 2:-5.7073125 
10 1:0.34220117 2:-4.86175 
10 1:0.30457617 2:-4.800375 
10 1:0.26139648 2:-3.9065 
10 1:0.23833789 2:-3.5234375 
10 1:0.25609961 2:-4.8286875 
10 1:0.46158789 2:-6.3245 
10 1:0.18111133 2:-3.8718125 
10 1:0.10470117 2:-2.0403125 
10 1:0.25066016 2:-5.3246875 
10 1:0.31887695 2:-4.1925625 
10 1:0.28611328 2:-4.2628125 
10 1:0.29109961 2:-4.8304375 
10 1:0.3342832 2:-5.083375 
10 1:0.37238281 2:-5.6673125 
10 1:0.35248828 2:-6.0931875 
10 1:0.23925195 2:-3.3940625 
10 1:0.29116406 2:-4.66075 
10 1:0.16525 2:-3.4219375 
10 1:0.34221484 2:-5.6703125 
10 1:0.36295508 2:-4.2379375 
10 1:0.34278125 2:-6.560875 
10 1:0.18889648 2:-4.22575 
10 1:0.34974219 2:-5.7724375 
10 1:0.45111328 2:-4.638 
10 1:0.2734082 2:-5.0863125 
10 1:0.25859961 2:-4.34675 
10 1:0.31899414 2:-5.4053125 
10 1:0.32048242 2:-5.0265 
10 1:0.34374023 2:-5.2498125 
10 1:0.37499023 2:-5.383375 
10 1:0.23031055 2:-5.0878125 
10 1:0.30944727 2:-5.53075 
10 1:0.1929082 2:-3.553125 
10 1:0.46312695 2:-4.068625 
10 1:0.42146484 2:-5.1829375 
10 1:0.32608203 2:-5.2506875 
10 1:0.32270898 2:-4.6103125 
10 1:0.18949023 2:-2.7203125 
10 1:0.33836133 2:-3.841 
10 1:0.1909375 2:-3.7321875 
10 1:0.29849609 2:-4.329875 
10 1:0.23940039 2:-4.7823125 
10 1:0.20805078 2:-3.4991875 
10 1:0.28728125 2:-5.9145 
10 1:0.18129297 2:-3.7985625 
10 1:0.18807031 2:-4.1786875 
10 1:0.27955469 2:-5.9626875 
10 1:0.23505273 2:-4.928375 
10 1:0.28495703 2:-4.809125 
10 1:0.31384961 2:-5.691875 
10 1:0.22788086 2:-4.53975 
10 1:0.29710352 2:-5.6455625 
10 1:0.3482832 2:-5.8353125 
10 1:0.37054687 2:-5.4014375 
10 1:0.20766602 2:-4.0169375 
10 1:0.29980664 2:-6.0154375 
10 1:0.24275586 2:-4.3421875 
10 1:0.3327168 2:-4.190125 
10 1:0.23866406 2:-4.9033125 
10 1:0.3979668 2:-6.434375 
10 1:0.3255625 2:-6.09575 
10 1:0.28389648 2:-5.61625 
10 1:0.20483398 2:-3.5325625 
10 1:0.27905078 2:-4.1588125 
10 1:0.30452148 2:-5.4704375 
10 1:0.22775977 2:-4.160375 
10 1:0.3599668 2:-4.7544375 
10 1:0.32683008 2:-4.0153125 
10 1:0.16895703 2:-2.7516875 
10 1:0.18250586 2:-3.7494375 
10 1:0.27755664 2:-5.39075 
10 1:0.226 2:-4.10375 
10 1:0.20174609 2:-3.821375 
10 1:0.33484766 2:-6.761375 
10 1:0.23505469 2:-3.79325 
10 1:0.47209961 2:-4.102375 
10 1:0.2723418 2:-3.8523125 
10 1:0.30117187 2:-4.8214375 
10 1:0.39258008 2:-5.3465 
10 1:0.21582812 2:-3.5631875 
10 1:0.39804688 2:-4.837375 
10 1:0.28095313 2:-3.7199375 
10 1:0.25234375 2:-3.647875 
10 1:0.33180273 2:-4.425125 
10 1:0.17717383 2:-3.5808125 
10 1:0.33639062 2:-5.632125 
10 1:0.29933398 2:-5.322 
10 1:0.46201172 2:-5.260375 
10 1:0.39512695 2:-6.255875 
10 1:0.264375 2:-3.62875 
10 1:0.31404102 2:-4.346125 
10 1:0.28978516 2:-5.5816875 
10 1:0.17264844 2:-2.9095625 
10 1:0.24851367 2:-4.4968125 
10 1:0.20826953 2:-2.767125 
10 1:0.28607422 2:-5.5879375 
10 1:0.19273242 2:-3.776 
10 1:0.28648438 2:-5.312 
10 1:0.44980664 2:-3.9481875 
10 1:0.22086914 2:-3.7381875 
10 1:0.33143359 2:-5.4431875 
10 1:0.32681055 2:-5.6421875 
10 1:0.25287305 2:-4.3624375 
10 1:0.30970703 2:-5.2878125 
10 1:0.22991602 2:-5.1326875 
10 1:0.25782422 2:-4.0645625 
10 1:0.12288477 2:-2.757375 
10 1:0.19742187 2:-4.047875 
10 1:0.3624082 2:-4.4905625 
10 1:0.39014258 2:-6.121875 
10 1:0.28554492 2:-5.41175 
10 1:0.26200195 2:-4.2871875 
10 1:0.17265039 2:-3.02575 
10 1:0.40245898 2:-4.9370625 
10 1:0.17937695 2:-2.999875 
10 1:0.29432422 2:-5.3350625 
10 1:0.21678516 2:-3.9260625 
10 1:0.19486914 2:-3.263375 
10 1:0.2285293 2:-4.7909375 
10 1:0.25946094 2:-4.9086875 
10 1:0.32372266 2:-4.3731875 
10 1:0.36457422 2:-5.483875 
10 1:0.29497266 2:-5.505625 
10 1:0.3433125 2:-5.63875 
10 1:0.31481055 2:-3.7885625 
10 1:0.309625 2:-4.95275 
10 1:0.27708008 2:-6.11525 
10 1:0.24723047 2:-4.4385 
10 1:0.098121094 2:-1.977625 
10 1:0.33994922 2:-5.904125 
10 1:0.35743555 2:-5.2845 
10 1:0.30871875 2:-4.3361875 
10 1:0.30313867 2:-3.5388125 
10 1:0.33349023 2:-5.87225 
10 1:0.36463672 2:-5.2138125 
10 1:0.29096289 2:-5.5216875 
10 1:0.21616992 2:-4.3509375 
10 1:0.25119336 2:-5.2188125 
10 1:0.30472266 2:-6.0991875 
10 1:0.24595313 2:-5.170875 
10 1:0.34316602 2:-5.2844375 
10 1:0.12046484 2:-2.772625 
10 1:0.37414063 2:-4.146625 
10 1:0.2322793 2:-4.3825625 
10 1:0.32144727 2:-5.7114375 
10 1:0.29976758 2:-5.8829375 
10 1:0.25285937 2:-4.1435625 
10 1:0.25238281 2:-3.4760625 
10 1:0.32075781 2:-5.06075 
10 1:0.35883984 2:-5.7729375 
10 1:0.17863086 2:-3.4599375 
10 1:0.19761133 2:-2.0180625 
10 1:0.15392578 2:-3.3181875 
10 1:0.21429492 2:-4.0885625 
10 1:0.15913672 2:-2.57275 
10 1:0.33027148 2:-4.956875 
10 1:0.27220117 2:-3.6044375 
10 1:0.33854492 2:-5.526625 
10 1:0.25274414 2:-3.2659375 
10 1:0.36293945 2:-4.72275 
10 1:0.38269336 2:-5.2319375 
10 1:0.096986328 2:-2.1764375 
10 1:0.38685742 2:-5.72125 
10 1:0.36966211 2:-4.90725 
10 1:0.36369922 2:-5.36625 
10 1:0.36968945 2:-4.4983125 
10 1:0.20227539 2:-2.6524375 
10 1:0.32687305 2:-5.4759375 
10 1:0.20184766 2:-3.3630625 
10 1:0.32619922 2:-5.0000625 
10 1:0.31619727 2:-6.3761875 
10 1:0.31189453 2:-5.001625 
10 1:0.32946484 2:-5.1068125 
10 1:0.30473828 2:-5.8505 
10 1:0.28028516 2:-4.858875 
10 1:0.2922207 2:-5.43275 
10 1:0.23249414 2:-3.9426875 
10 1:0.26087305 2:-4.1783125 
10 1:0.34523242 2:-6.061875 
10 1:0.33458398 2:-5.768125 
10 1:0.38610742 2:-6.1371875 
10 1:0.24331641 2:-4.9111875 
10 1:0.22683203 2:-4.1194375 
10 1:0.35151367 2:-5.6770625 
10 1:0.20374609 2:-3.9115625 
10 1:0.34056836 2:-6.399125 
10 1:0.14449023 2:-3.170375 
10 1:0.32004297 2:-4.86475 
10 1:0.37266602 2:-5.2381875 
10 1:0.25951563 2:-3.7545625 
10 1:0.25950391 2:-5.104375 
10 1:0.29525 2:-4.57775 
10 1:0.18617969 2:-3.2291875 
10 1:0.17439063 2:-3.1875 
10 1:0.19478711 2:-3.9204375 
10 1:0.38851953 2:-5.6038125 
10 1:0.4188418 2:-5.466875 
10 1:0.41641016 2:-4.679 
10 1:0.20263086 2:-3.304875 
10 1:0.30674414 2:-6.0086875 
10 1:0.38054102 2:-4.196375 
10 1:0.32592969 2:-5.55525 
10 1:0.41155273 2:-6.8126875 
10 1:0.24235156 2:-4.3270625 
10 1:0.32580078 2:-5.342 
10 1:0.3574375 2:-5.559125 
10 1:0.31873438 2:-5.045375 
10 1:0.22789648 2:-4.39775 
10 1:0.23656055 2:-4.7846875 
10 1:0.302 2:-6.17125 
10 1:0.35835547 2:-6.3311875 
10 1:0.26091406 2:-5.306875 
10 1:0.17083203 2:-4.0699375 
10 1:0.18941211 2:-4.615375 
10 1:0.24383789 2:-4.421625 
10 1:0.30045117 2:-5.435 
10 1:0.13873633 2:-2.1679375 
10 1:0.24426367 2:-5.466 
10 1:0.099441406 2:-2.0795 
10 1:0.18944727 2:-4.271 
10 1:0.20151562 2:-4.401 
10 1:0.3229082 2:-6.2829375 
10 1:0.23021875 2:-4.95975 
10 1:0.24755859 2:-4.672875 
10 1:0.31121484 2:-5.3504375 
10 1:0.27235742 2:-4.1454375 
10 1:0.31517969 2:-4.672375 
10 1:0.35369141 2:-5.0035 
10 1:0.34079687 2:-4.7308125 
10 1:0.28069141 2:-5.3175625 
10 1:0.33494336 2:-6.0705625 
10 1:0.17751758 2:-3.8049375 
10 1:0.48474609 2:-6.674125 
10 1:0.31896094 2:-5.0758125 
10 1:0.42489258 2:-5.367 
10 1:0.28961328 2:-5.0679375 
10 1:0.20986914 2:-3.282625 
10 1:0.29611914 2:-4.7405 
10 1:0.22431836 2:-4.4473125 
10 1:0.23323438 2:-4.785 
10 1:0.28777148 2:-3.8546875 
10 1:0.22549609 2:-5.097125 
10 1:0.23999023 2:-4.5229375 
10 1:0.33577344 2:-4.9798125 
10 1:0.36389453 2:-4.4950625 
10 1:0.29553906 2:-3.6444375 
10 1:0.25910937 2:-4.9125 
10 1:0.19036914 2:-4.209875 
10 1:0.16502344 2:-2.9746875 
10 1:0.27081641 2:-5.5245 
10 1:0.28028516 2:-4.547 
10 1:0.15526172 2:-3.1831875 
10 1:0.2285625 2:-4.742625 
10 1:0.31305664 2:-5.7598125 
10 1:0.27074414 2:-3.84525 
10 1:0.18848047 2:-3.5241875 
10 1:0.23993359 2:-3.5594375 
10 1:0.32173438 2:-3.9305 
10 1:0.24639844 2:-4.5955625 
10 1:0.23110156 2:-3.36125 
10 1:0.23009766 2:-4.3459375 
10 1:0.36611328 2:-5.1491875 
10 1:0.38274023 2:-5.827375 
10 1:0.17215039 2:-3.63775 
10 1:0.27383008 2:-5.41075 
10 1:0.33 2:-5.3965625 
10 1:0.3435332 2:-5.4168125 
10 1:0.2544375 2:-4.094875 
10 1:0.24917187 2:-4.7546875 
10 1:0.22132813 2:-4.737625 
10 1:0.38236328 2:-5.1270625 
10 1:0.15141602 2:-3.1495 
10 1:0.35045508 2:-5.5129375 
10 1:0.11356445 2:-1.707875 
10 1:0.28158594 2:-4.8255 
10 1:0.28799609 2:-4.1228125 
10 1:0.38253711 2:-4.640375 
10 1:0.15877148 2:-2.7178125 
10 1:0.18411523 2:-3.1863125 
10 1:0.13429297 2:-3.16725 
10 1:0.25813672 2:-5.1858125 
10 1:0.36211133 2:-5.380375 
10 1:0.19598633 2:-3.6105625 
10 1:0.28885156 2:-5.466625 
10 1:0.22812891 2:-3.6428125 
10 1:0.31932422 2:-5.7755 
10 1:0.35314844 2:-5.3280625 
10 1:0.35810352 2:-5.0428125 
10 1:0.34525391 2:-5.8870625 
10 1:0.31505469 2:-4.7126875 
10 1:0.31575195 2:-5.014625 
10 1:0.25590625 2:-4.9785625 
10 1:0.16066602 2:-3.24775 
10 1:0.26879688 2:-3.7056875 
10 1:0.23321484 2:-5.1535625 
10 1:0.24242187 2:-4.7375625 
10 1:0.15169531 2:-2.536625 
10 1:0.32768555 2:-5.0791875 
10 1:0.19032617 2:-3.7165 
10 1:0.33830469 2:-5.4771875 
10 1:0.23816016 2:-3.161375 
10 1:0.2439668 2:-3.3909375 
10 1:0.25033008 2:-4.57875 
10 1:0.25346875 2:-4.811125 
10 1:0.28091016 2:-5.2229375 
10 1:0.37686719 2:-6.1020625 
10 1:0.37833398 2:-4.7169375 
10 1:0.40001758 2:-6.005875 
10 1:0.32817578 2:-4.99775 
10 1:0.24972461 2:-4.840625 
10 1:0.19108789 2:-4.133375 
10 1:0.25584961 2:-3.3073125 
10 1:0.21626758 2:-3.0046875 
10 1:0.24691016 2:-4.2561875 
10 1:0.27854297 2:-5.9966875 
10 1:0.21939258 2:-4.7096875 
10 1:0.29558789 2:-5.2064375 
10 1:0.36405469 2:-5.506625 
10 1:0.32339258 2:-4.312625 
10 1:0.18537695 2:-3.6905 
10 1:0.24902539 2:-4.4651875 
10 1:0.31235938 2:-3.728625 
10 1:0.31249219 2:-4.5206875 
10 1:0.28220898 2:-5.411 
10 1:0.34674219 2:-6.1005625 
10 1:0.25249414 2:-4.8134375 
10 1:0.15475781 2:-3.454125 
10 1:0.30721289 2:-5.265875 
10 1:0.22701367 2:-3.6714375 
10 1:0.2453125 2:-4.7945625 
10 1:0.26214648 2:-5.489875 
10 1:0.13599414 2:-3.2916875 
10 1:0.13015625 2:-2.3803125 
10 1:0.22891992 2:-4.087 
10 1:0.22679297 2:-4.1190625 
10 1:0.088638672 2:-1.6873125 
10 1:0.18546484 2:-3.7265625 
10 1:0.27930469 2:-4.776375 
10 1:0.21380859 2:-4.451875 
10 1:0.20828516 2:-3.778375 
10 1:0.23928711 2:-4.3355625 
10 1:0.26014062 2:-5.9321875 
10 1:0.13742773 2:-2.704375 
10 1:0.24703516 2:-4.5748125 
10 1:0.21986328 2:-4.9395 
10 1:0.30321094 2:-5.1368125 
10 1:0.25118164 2:-5.15825 
10 1:0.29588281 2:-5.0153125 
10 1:0.25108789 2:-5.1398125 
10 1:0.3152832 2:-4.88725 
10 1:0.18689844 2:-4.18925 
10 1:0.1223125 2:-2.686875 
10 1:0.36935156 2:-4.7301875 
10 1:0.23406836 2:-3.316875 
10 1:0.40715039 2:-4.4429375 
10 1:0.36196094 2:-4.796 
10 1:0.24729492 2:-4.18675 
10 1:0.26040039 2:-4.4934375 
10 1:0.25937695 2:-3.4583125 
10 1:0.21744336 2:-4.209875 
10 1:0.26240039 2:-4.5095625 
10 1:0.33195117 2:-4.290125 
10 1:0.34316211 2:-5.11375 
10 1:0.3021875 2:-4.1948125 
10 1:0.28017773 2:-4.6630625 
10 1:0.19176953 2:-3.300375 
10 1:0.18700586 2:-3.968875 
10 1:0.33394141 2:-5.1305 
10 1:0.20199219 2:-4.3338125 
10 1:0.3560332 2:-4.8226875 
10 1:0.26353125 2:-5.2593125 
10 1:0.25404492 2:-4.9859375 
10 1:0.3019375 2:-5.195875 
10 1:0.22598828 2:-4.0158125 
10 1:0.19266211 2:-3.5565625 
10 1:0.35314648 2:-5.098125 
10 1:0.29303711 2:-5.9831875 
10 1:0.30941602 2:-4.469125 
10 1:0.35025195 2:-5.4346875 
10 1:0.17841406 2:-3.1833125 
10 1:0.32103516 2:-4.3830625 
10 1:0.31308203 2:-6.5335625 
10 1:0.2569082 2:-4.61875 
10 1:0.31373047 2:-4.525875 
10 1:0.10522656 2:-1.86675 
10 1:0.24534766 2:-4.24725 
10 1:0.19892578 2:-2.933375 
10 1:0.29341211 2:-5.0375625 
10 1:0.14224023 2:-3.3098125 
10 1:0.28376367 2:-5.632375 
10 1:0.37445117 2:-4.3005625 
10 1:0.31049414 2:-5.8270625 
10 1:0.23560938 2:-4.2560625 
10 1:0.40345508 2:-5.1710625 
10 1:0.2657168 2:-4.5379375 
10 1:0.24109766 2:-4.7700625 
10 1:0.21969531 2:-5.0075 
10 1:0.27729492 2:-5.7964375 
10 1:0.30561719 2:-4.2335 
10 1:0.29319922 2:-4.9666875 
10 1:0.19292188 2:-4.2135 
10 1:0.16263281 2:-4.21425 
10 1:0.24239453 2:-3.683875 
10 1:0.16492383 2:-2.9089375 
10 1:0.19742383 2:-3.058375 
10 1:0.32304297 2:-5.7953125 
10 1:0.23500977 2:-4.5056875 
10 1:0.22179883 2:-4.311125 
10 1:0.33344922 2:-4.6826875 
10 1:0.27213672 2:-4.651375 
10 1:0.28000586 2:-5.0475 
10 1:0.24602148 2:-5.08975 
10 1:0.34460547 2:-4.783125 
10 1:0.20388867 2:-4.0078125 
10 1:0.23042383 2:-4.1130625 
10 1:0.19194727 2:-3.5285 
10 1:0.1992207 2:-4.415625 
10 1:0.19694531 2:-3.9195625 
10 1:0.28355469 2:-4.5768125 
10 1:0.2641875 2:-4.3831875 
10 1:0.35918359 2:-5.177625 
10 1:0.20975977 2:-3.153625 
10 1:0.29563281 2:-5.2989375 
10 1:0.27587695 2:-3.5220625 
10 1:0.22634375 2:-4.1656875 
10 1:0.23654492 2:-4.495125 
10 1:0.31331641 2:-3.9036875 
10 1:0.24048633 2:-3.747625 
10 1:0.32211914 2:-4.326625 
10 1:0.31715625 2:-4.7206875 
10 1:0.33679883 2:-3.4530625 
10 1:0.30251172 2:-3.3386875 
10 1:0.39397461 2:-3.8175 
10 1:0.25571094 2:-4.712625 
10 1:0.32649414 2:-4.8268125 
10 1:0.30823633 2:-5.581375 
10 1:0.26426953 2:-3.7528125 
10 1:0.22072852 2:-3.839 
10 1:0.22940039 2:-3.371875 
10 1:0.34047852 2:-4.48025 
10 1:0.39775781 2:-5.4693125 
10 1:0.18567578 2:-3.196375 
10 1:0.40342578 2:-6.348125 
10 1:0.11514062 2:-2.079875 
10 1:0.27491992 2:-5.1063125 
10 1:0.34011523 2:-4.4020625 
10 1:0.19501367 2:-2.6203125 
10 1:0.3259375 2:-5.6773125 
10 1:0.25251953 2:-4.5294375 
10 1:0.24896289 2:-5.6844375 
10 1:0.35208398 2:-2.5773125 
10 1:0.47109961 2:-4.566125 
10 1:0.32918945 2:-4.736375 
10 1:0.24475781 2:-5.235875 
10 1:0.249 2:-3.5843125 
10 1:0.34269922 2:-4.25825 
10 1:0.30334375 2:-5.173875 
10 1:0.27080273 2:-4.5884375 
10 1:0.2614707 2:-4.7341875 
10 1:0.28152734 2:-5.4225 
10 1:0.2542793 2:-4.8716875 
10 1:0.43359375 2:-3.0754375 
10 1:0.38183594 2:-4.813125 
10 1:0.32441602 2:-5.6034375 
10 1:0.30524609 2:-3.7535625 
10 1:0.20672852 2:-4.349125 
10 1:0.18959375 2:-3.477625 
10 1:0.3448418 2:-4.1620625 
10 1:0.19666016 2:-2.7878125 
10 1:0.23275 2:-3.6356875 
10 1:0.4310957 2:-3.0286875 
10 1:0.30914844 2:-5.638125 
10 1:0.18744141 2:-4.0124375 
10 1:0.19954297 2:-4.1919375 
10 1:0.25959375 2:-4.4963125 
10 1:0.29066602 2:-5.2228125 
10 1:0.16261914 2:-3.700375 
10 1:0.29131055 2:-5.148 
10 1:0.56246484 2:-4.2535625 
10 1:0.25485742 2:-3.544625 
10 1:0.16104883 2:-3.330625 
10 1:0.046820312 2:-0.9586875 
10 1:0.067253906 2:-1.4940625 
10 1:0.22654297 2:-4.5641875 
10 1:0.28054102 2:-4.74375 
10 1:0.29606055 2:-4.3289375 
10 1:0.27980664 2:-4.7280625 
10 1:0.37046094 2:-5.16625 
10 1:0.36050586 2:-5.13925 
10 1:0.21078516 2:-3.50975 
10 1:0.17895703 2:-3.934375 
10 1:0.26287891 2:-5.386375 
10 1:0.41386719 2:-5.3438125 
10 1:0.25487305 2:-4.266625 
10 1:0.30711719 2:-6.25125 
10 1:0.26615234 2:-6.0169375 
10 1:0.21031055 2:-4.0326875 
10 1:0.1327832 2:-2.80375 
10 1:0.20666406 2:-3.6920625 
10 1:0.24755078 2:-4.476 
10 1:0.2448418 2:-3.6040625 
10 1:0.22137305 2:-4.4660625 
10 1:0.16068945 2:-2.8523125 
10 1:0.14626172 2:-2.79875 
10 1:0.38603711 2:-5.7089375 
10 1:0.36771484 2:-4.042875 
10 1:0.42561328 2:-5.0830625 
10 1:0.25457422 2:-4.7360625 
10 1:0.40423828 2:-5.0844375 
10 1:0.23528906 2:-5.5748125 
10 1:0.23816602 2:-3.424875 
10 1:0.22977344 2:-4.459 
10 1:0.22573437 2:-5.1725625 
10 1:0.24811523 2:-4.385125 
10 1:0.19322656 2:-3.948625 
10 1:0.25514844 2:-3.4875 
10 1:0.33202344 2:-4.4995625 
10 1:0.43722656 2:-4.279375 
10 1:0.3137832 2:-4.3058125 
10 1:0.26782227 2:-4.34 
10 1:0.25541797 2:-3.2610625 
10 1:0.33197852 2:-4.3599375 
10 1:0.24795898 2:-3.6968125 
10 1:0.41069727 2:-6.33175 
10 1:0.35206836 2:-4.7219375 
10 1:0.30229102 2:-4.7425 
10 1:0.33002344 2:-4.5489375 
10 1:0.30280078 2:-5.24075 
10 1:0.25445313 2:-3.2235625 
10 1:0.5255957 2:-5.70775 
10 1:0.2941543 2:-5.671 
10 1:0.30228516 2:-4.418375 
10 1:0.27196875 2:-4.4168125 
10 1:0.3350332 2:-4.747125 
10 1:0.32950586 2:-5.28025 
10 1:0.28805859 2:-4.6735 
10 1:0.27817773 2:-5.013 
10 1:0.3691582 2:-5.221 
10 1:0.26773242 2:-4.181625 
10 1:0.30394922 2:-5.17475 
10 1:0.29885547 2:-5.465125 
10 1:0.23125195 2:-4.1251875 
10 1:0.27708008 2:-3.813875 
10 1:0.29437695 2:-4.4804375 
10 1:0.21803125 2:-4.6393125 
10 1:0.28741406 2:-6.508375 
10 1:0.27556055 2:-4.5849375 
10 1:0.19014453 2:-3.5728125 
10 1:0.47537305 2:-4.7585 
10 1:0.33665625 2:-4.9698125 
10 1:0.33357617 2:-5.66975 
10 1:0.29271875 2:-4.6921875 
10 1:0.098136719 2:-1.4321875 
10 1:0.22839258 2:-3.99575 
10 1:0.36239258 2:-5.0970625 
10 1:0.39016797 2:-4.9833125 
10 1:0.37181836 2:-4.92175 
10 1:0.34039844 2:-5.828875 
10 1:0.3381582 2:-5.9806875 
10 1:0.26001172 2:-3.86525 
10 1:0.27386914 2:-3.9796875 
10 1:0.3414082 2:-4.7151875 
10 1:0.19181836 2:-4.0843125 
10 1:0.25605078 2:-4.6960625 
10 1:0.33826953 2:-5.990625 
10 1:0.29062891 2:-4.898125 
10 1:0.29903516 2:-4.6679375 
10 1:0.23970312 2:-3.829 
10 1:0.28197461 2:-5.886 
10 1:0.37932617 2:-3.9695 
10 1:0.21333594 2:-3.8818125 
10 1:0.17953711 2:-3.50825 
10 1:0.16666602 2:-3.181875 
10 1:0.25860352 2:-4.259625 
10 1:0.40974609 2:-6.5911875 
10 1:0.23354297 2:-3.1538125 
10 1:0.2085332 2:-3.418375 
10 1:0.33665234 2:-5.5881875 
10 1:0.35732422 2:-5.45525 
10 1:0.29158789 2:-5.2996875 
10 1:0.36516211 2:-4.9870625 
10 1:0.35107031 2:-5.908875 
10 1:0.41186133 2:-5.304625 
10 1:0.21062695 2:-4.137 
10 1:0.24916992 2:-4.545 
10 1:0.12539453 2:-2.4486875 
10 1:0.29625195 2:-4.1665 
10 1:0.30539844 2:-5.5684375 
10 1:0.32077539 2:-4.60375 
10 1:0.39958398 2:-4.91325 
10 1:0.34628711 2:-5.7885625 
10 1:0.39264844 2:-5.5818125 
10 1:0.26417188 2:-4.3373125 
10 1:0.45968945 2:-5.043375 
10 1:0.29028516 2:-4.75325 
10 1:0.25547266 2:-4.4555 
10 1:0.27573828 2:-4.6065625 
10 1:0.44541211 2:-6.16325 
10 1:0.39750586 2:-5.7055625 
10 1:0.29246875 2:-5.152625 
10 1:0.28086523 2:-5.5986875 
10 1:0.35510156 2:-5.9024375 
10 1:0.5193418 2:-3.74275 
10 1:0.2403418 2:-4.811 
10 1:0.22824414 2:-4.942875 
10 1:0.23441406 2:-3.7499375 
10 1:0.31110156 2:-5.0136875 
10 1:0.37423047 2:-5.276625 
10 1:0.18012109 2:-3.3941875 
-10 1:0.19740234 2:-4.139 
-10 1:0.19057617 2:-3.876 
-10 1:0.21072461 2:-4.0576875 
-10 1:0.35700391 2:-5.1086875 
-10 1:0.27167383 2:-5.0855 
-10 1:0.32394141 2:-4.4250625 
-10 1:0.41233789 2:-5.5705 
-10 1:0.37638086 2:-6.194875 
-10 1:0.25282812 2:-4.810375 
-10 1:0.26391211 2:-4.62975 
-10 1:0.25022266 2:-4.73425 
-10 1:0.304 2:-4.2009375 
-10 1:0.25520508 2:-4.975 
-10 1:0.29611523 2:-5.2068125 
-10 1:0.32936523 2:-4.9815 
-10 1:0.28472852 2:-5.4161875 
-8.8402106071150879 1:0.4166543 2:-6.32025 
-10 1:0.18958984 2:-3.7131875 
-10 1:0.30048633 2:-3.50575 
-1.0737329325064369 1:0.13074219 2:-1.6263125 
-10 1:0.24378906 2:-4.7823125 
-10 1:0.25048242 2:-4.595625 
-10 1:0.29211523 2:-5.5613125 
-10 1:0.24038672 2:-3.35325 
-10 1:0.29000391 2:-4.12425 
-10 1:0.19091211 2:-3.9148125 
-10 1:0.25561523 2:-4.500125 
-10 1:0.19188281 2:-2.0279375 
-10 1:0.13867773 2:-2.1584375 
-10 1:0.35275195 2:-5.096875 
-10 1:0.26702148 2:-5.8805 
-10 1:0.28038086 2:-4.51125 
-10 1:0.22581641 2:-4.0114375 
-2.4244244897309724 1:0.28956836 2:-6.3693125 
-9.9311963046566802 1:0.30739453 2:-6.3014375 
-10 1:0.2695293 2:-5.3064375 
-10 1:0.32865234 2:-6.080125 
-10 1:0.24306445 2:-4.2538125 
-10 1:0.35733008 2:-5.43475 
-10 1:0.23387695 2:-4.2503125 
-10 1:0.29919727 2:-3.645375 
-10 1:0.27054883 2:-3.8561875 
-10 1:0.19022461 2:-2.65175 
-10 1:0.20408203 2:-4.0919375 
-10 1:0.31200586 2:-4.8094375 
-10 1:0.27999219 2:-5.3160625 
-10 1:0.25310938 2:-3.3103125 
-10 1:0.32777344 2:-5.440125 
-10 1:0.27254883 2:-4.6736875 
-10 1:0.28758984 2:-5.0668125 
-10 1:0.18875977 2:-2.61775 
-10 1:0.088027344 2:-1.490625 
-10 1:0.23852734 2:-3.167 
-10 1:0.20630469 2:-3.6949375 
-10 1:0.26625781 2:-5.1054375 
-10 1:0.32689258 2:-5.5529375 
-10 1:0.37255469 2:-4.3179375 
-10 1:0.33484375 2:-4.3180625 
-10 1:0.22968555 2:-4.1193125 
-10 1:0.33263477 2:-5.3505 
-6.7222952198938142 1:0.35856055 2:-4.7313125 
-10 1:0.31284375 2:-5.4084375 
-10 1:0.33907031 2:-5.9951875 
-10 1:0.35479102 2:-5.16575 
-10 1:0.31208594 2:-5.566 
-10 1:0.22314258 2:-3.736875 
-10 1:0.19083008 2:-3.947625 
-10 1:0.20363477 2:-4.17475 
-10 1:0.11845703 2:-2.042875 
-10 1:0.26405078 2:-4.7771875 
-10 1:0.1962832 2:-2.790375 
-10 1:0.11400195 2:-1.7169375 
-10 1:0.18683984 2:-4.0678125 
-10 1:0.32322461 2:-4.9383125 
-8.9684105733148378 1:0.43748438 2:-3.083 
-9.5604342377158584 1:0.35098438 2:-2.575 
-10 1:0.21545312 2:-4.1344375 
-10 1:0.18749023 2:-3.19425 
-10 1:0.42935742 2:-3.0300625 
-10 1:0.22990625 2:-4.26575 
-10 1:0.34130664 2:-5.77475 
-10 1:0.30417187 2:-4.292125 
-10 1:0.41410156 2:-6.125625 
-10 1:0.36448047 2:-5.8969375 
-10 1:0.42115039 2:-5.187125 
-10 1:0.3230332 2:-5.3358125 
-10 1:0.30964844 2:-4.2974375 
-10 1:0.25841797 2:-3.5398125 
-10 1:0.35771094 2:-4.2160625 
-10 1:0.19030078 2:-4.238 
-10 1:0.27236914 2:-3.7054375 
-10 1:0.33359375 2:-4.6084375 
-10 1:0.24210937 2:-3.6994375 
-10 1:0.32655273 2:-4.7643125 
-10 1:0.39511133 2:-5.375 
-10 1:0.2340332 2:-4.46175 
-10 1:0.24998438 2:-4.0945625 
-10 1:0.39942773 2:-6.0199375 
-10 1:0.33074023 2:-4.362625 
-10 1:0.3622207 2:-4.4836875 
-10 1:0.33055078 2:-3.4485 
-10 1:0.27071094 2:-4.3335625 
-10 1:0.45618164 2:-6.5829375 
-10 1:0.37798242 2:-5.36075 
-10 1:0.35523242 2:-5.1198125 
-10 1:0.35425195 2:-5.4400625 
-10 1:0.34451172 2:-5.8075 
-10 1:0.35028711 2:-6.351625 
-10 1:0.3164668 2:-4.8870625 
-10 1:0.12416602 2:-2.0903125 
-10 1:0.22916211 2:-3.99775 
-10 1:0.23810742 2:-3.604625 
-10 1:0.22198633 2:-4.4669375 
-10 1:0.22388477 2:-3.3609375 
-10 1:0.31817187 2:-5.0755625 
-10 1:0.35276562 2:-4.7933125 
-10 1:0.37476758 2:-6.0885625 
-10 1:0.41318555 2:-4.2830625 
-10 1:0.31034766 2:-5.7493125 
-10 1:0.22929492 2:-4.1615 
-10 1:0.17549609 2:-3.947 
-10 1:0.33296875 2:-5.5289375 
-10 1:0.25849219 2:-4.3523125 
-10 1:0.2555332 2:-4.80425 
-10 1:0.39208203 2:-3.828125 
-10 1:0.21854297 2:-4.6409375 
-10 1:0.40318555 2:-5.302875 
-10 1:0.25605273 2:-4.287875 
-0.029962041783640612 1:0.36864453 2:-5.4316875 
-10 1:0.18422461 2:-4.210375 
-10 1:0.21365234 2:-3.4150625 
-2.4391449279942266 1:0.45625781 2:-3.9156875 
-0.00079087341983253526 1:0.49548828 2:-3.364375 
-10 1:0.35889258 2:-6.5419375 
-10 1:0.20708398 2:-4.1880625 
-10 1:0.25582617 2:-4.870375 
-10 1:0.18447266 2:-3.1966875 
-10 1:0.1780957 2:-3.2313125 
-10 1:0.31336523 2:-3.929875 
-10 1:0.15466797 2:-3.45675 
-10 1:0.31982812 2:-5.0585 
-10 1:0.20795703 2:-3.82 
-10 1:0.31701953 2:-3.7220625 
-10 1:0.29295898 2:-4.6575625 
-0.0046169923536464128 1:0.22850586 2:-1.869875 
-10 1:0.41492578 2:-5.714125 
-10 1:0.30117969 2:-5.2889375 
-8.3764745579749391 1:0.52735156 2:-4.2251875 
-10 1:0.2899082 2:-4.8065 
-0.45487726973712234 1:0.26952148 2:-1.5008125 
-10 1:0.29452344 2:-5.858625 
-10 1:0.25061328 2:-4.3894375 
-10 1:0.25239648 2:-4.017875 
-10 1:0.24758789 2:-4.41875 
-10 1:0.18032227 2:-3.4590625 
-3.7795097042101036 1:0.3395625 2:-5.95575 
-10 1:0.15715234 2:-3.00575 
-10 1:0.39625195 2:-5.7065625 
-10 1:0.34291602 2:-5.659125 
-10 1:0.33361914 2:-6.093125 
-0.031668113834209678 1:0.29837891 2:-1.868375 
-10 1:0.23622656 2:-4.2471875 
-10 1:0.22990234 2:-4.13075 
-10 1:0.23815625 2:-3.5234375 
-10 1:0.31239258 2:-3.335375 
-10 1:0.34549414 2:-5.2533125 
-10 1:0.21329492 2:-4.0851875 
-10 1:0.28219141 2:-5.6 
-10 1:0.20562109 2:-4.42025 
-10 1:0.35424609 2:-4.1588125 
-10 1:0.39354883 2:-5.9889375 
-10 1:0.1582793 2:-2.42875 
-10 1:0.2905 2:-5.1194375 
-10 1:0.14036523 2:-2.703625 
-10 1:0.19635547 2:-4.2664375 
-10 1:0.24689063 2:-3.7405625 
-10 1:0.32481836 2:-6.3535 
-0.60237228255008679 1:0.41588477 2:-5.7424375 
-10 1:0.32420508 2:-5.0073125 
-10 1:0.31465625 2:-3.7899375 
-10 1:0.2920332 2:-4.6695 
-10 1:0.19614844 2:-2.9331875 
-10 1:0.20133203 2:-3.4996875 
-10 1:0.20287305 2:-3.1580625 
-10 1:0.28486719 2:-3.718875 
-10 1:0.26508984 2:-4.06 
-10 1:0.27323438 2:-4.118625 
-10 1:0.30327539 2:-3.748 
-0.054137082407867451 1:0.23958398 2:-2.7159375 
-10 1:0.25771875 2:-4.141 
-10 1:0.25145898 2:-4.9026875 
-10 1:0.33034961 2:-4.2894375 
-0.15200117545650346 1:0.38156055 2:-2.6869375 
-10 1:0.23030078 2:-4.562125 
-10 1:0.48122461 2:-4.6288125 
-10 1:0.26274414 2:-5.226375 
-10 1:0.32289844 2:-3.9433125 
-10 1:0.31211133 2:-5.5661875 
-10 1:0.34958789 2:-6.155125 
-10 1:0.29985352 2:-5.4546875 
-10 1:0.25610352 2:-4.7163125 
-10 1:0.25418359 2:-5.4633125 
-10 1:0.21667773 2:-5.065875 
-10 1:0.11673633 2:-2.6884375 
-10 1:0.28702539 2:-5.30925 
-10 1:0.29369727 2:-5.4644375 
-10 1:0.31766992 2:-6.3675 
-10 1:0.22498242 2:-4.971 
-10 1:0.16495703 2:-2.8470625 
-5.0076938501621155 1:0.32047656 2:-5.663 
-10 1:0.3470957 2:-5.6554375 
-10 1:0.165625 2:-2.978625 
-10 1:0.25216016 2:-4.95275 
-10 1:0.28688477 2:-4.852125 
-10 1:0.31589453 2:-4.6761875 
-10 1:0.21582617 2:-4.73525 
-10 1:0.17721484 2:-3.185375 
-10 1:0.19631641 2:-3.776 
-10 1:0.31639063 2:-4.31275 
-10 1:0.25010547 2:-4.1759375 
-0.85355330030234267 1:0.3138457 2:-6.0845625 
-10 1:0.25866406 2:-5.145625 
-1.470316955268717 1:0.067634766 2:-1.410875 
-10 1:0.33136133 2:-4.273 
-10 1:0.13710156 2:-2.3773125 
-10 1:0.32294922 2:-4.96825 
-10 1:0.21074023 2:-3.88475 
-10 1:0.28158398 2:-3.5241875 
-10 1:0.3180957 2:-4.3368125 
-10 1:0.31867773 2:-5.0266875 
-10 1:0.38185937 2:-5.7153125 
-10 1:0.18390234 2:-3.9641875 
-10 1:0.30476953 2:-5.2653125 
-10 1:0.32344922 2:-5.2779375 
-0.0063628521984995245 1:0.19795508 2:-4.1676875 
-10 1:0.30098828 2:-6.4419375 
-10 1:0.36860742 2:-5.2060625 
-10 1:0.24781445 2:-4.7665625 
-10 1:0.31378711 2:-4.869 
-1.7763568394002505e-15 1:0.2720625 2:-5.821875 
-10 1:0.35986719 2:-5.0923125 
-8.2338122626158814 1:0.31410352 2:-5.3563125 
-10 1:0.38608203 2:-5.83775 
-0.08956355456739544 1:0.46813867 2:-1.7313125 
-10 1:0.18330469 2:-3.5765 
-10 1:0.25924609 2:-4.822625 
-10 1:0.19199219 2:-3.532125 
-10 1:0.29653906 2:-5.3133125 
-10 1:0.2986543 2:-4.975125 
-10 1:0.19237891 2:-4.173875 
-10 1:0.15839062 2:-3.244375 
-10 1:0.2190332 2:-3.64075 
-10 1:0.37031445 2:-6.1486875 
-10 1:0.32792187 2:-5.7695 
-10 1:0.16485938 2:-3.327375 
-10 1:0.21367188 2:-3.5629375 
-10 1:0.23996094 2:-4.4979375 
-10 1:0.20120117 2:-4.0053125 
-10 1:0.28327148 2:-5.4188125 
-10 1:0.28769141 2:-4.7579375 
-10 1:0.24716016 2:-4.4928125 
-10 1:0.2566875 2:-3.594875 
-10 1:0.1845625 2:-3.876875 
-10 1:0.22425781 2:-4.310125 
-10 1:0.22570313 2:-3.3734375 
-10 1:0.24593555 2:-4.580875 
-10 1:0.19210547 2:-3.7350625 
-6.0357730241718546 1:0.26706836 2:-5.5515625 
-10 1:0.30072461 2:-5.2973125 
-1.7763568394002505e-15 1:0.42236328 2:-6.1394375 
-0.15528179702329681 1:0.12839844 2:-1.844625 
-10 1:0.26073437 2:-4.258 
-10 1:0.30620117 2:-4.9893125 
-10 1:0.29336914 2:-4.1166875 
-10 1:0.38060742 2:-4.1420625 
-4.0466027602370005 1:0.24281641 2:-5.575625 
-10 1:0.27453906 2:-4.14125 
-10 1:0.33454297 2:-4.7880625 
-10 1:0.29112109 2:-4.6861875 
-10 1:0.34219727 2:-5.2260625 
-10 1:0.18467578 2:-2.040125 
-10 1:0.284875 2:-5.496625 
-10 1:0.30478516 2:-5.997625 
-10 1:0.28873242 2:-4.8899375 
-10 1:0.30873047 2:-4.7131875 
-10 1:0.2971875 2:-5.19825 
-10 1:0.28427539 2:-6.015875 
-0.8154480169604279 1:0.45385156 2:-2.0045625 
-10 1:0.32064062 2:-4.5230625 
-10 1:0.25051172 2:-4.4695625 
-10 1:0.30526953 2:-5.664125 
-10 1:0.2751875 2:-4.6055625 
-10 1:0.32485938 2:-5.72375 
-10 1:0.24793164 2:-3.6923125 
-10 1:0.29679883 2:-4.7449375 
-10 1:0.28314844 2:-4.734 
-10 1:0.20919336 2:-4.7135625 
-10 1:0.22113672 2:-3.8909375 
-10 1:0.24060547 2:-4.2458125 
-10 1:0.25982422 2:-4.185375 
-10 1:0.30915625 2:-4.5255 
-10 1:0.30179687 2:-4.583125 
-10 1:0.22069727 2:-2.997375 
-10 1:0.23849023 2:-4.3308125 
-10 1:0.23095508 2:-3.7495625 
-10 1:0.37776953 2:-5.1730625 
-10 1:0.36483398 2:-5.3958125 
-10 1:0.26369336 2:-3.4615625 
-10 1:0.13451953 2:-3.1604375 
-10 1:0.35900977 2:-5.2805 
-10 1:0.27134375 2:-5.155875 
-10 1:0.33317188 2:-4.68725 
-10 1:0.36764648 2:-5.1503125 
-0.56859312437756537 1:0.46247266 2:-6.5006875 
-10 1:0.23125586 2:-3.3141875 
-10 1:0.31097266 2:-5.580875 
-10 1:0.34935352 2:-5.6198125 
-10 1:0.30663086 2:-4.8278125 
-10 1:0.33318164 2:-5.25925 
-10 1:0.25394141 2:-4.367 
-10 1:0.19822656 2:-4.0500625 
-0.018369655042715694 1:0.20151953 2:-4.1438125 
-10 1:0.20957227 2:-4.60125 
-10 1:0.17592578 2:-2.996875 
-10 1:0.31485156 2:-4.1795 
-0.011979362139410704 1:0.36661328 2:-6.022 
-10 1:0.32645508 2:-5.77125 
-10 1:0.32393945 2:-4.69175 
-10 1:0.32344922 2:-4.7141875 
-10 1:0.31721875 2:-5.6945 
-10 1:0.34066992 2:-5.281875 
-10 1:0.38269531 2:-4.839625 
-6.3574498691846566 1:0.24037891 2:-4.7795625 
-10 1:0.28100586 2:-4.2859375 
-10 1:0.24909961 2:-4.7545 
-10 1:0.35889453 2:-4.4951875 
-10 1:0.19351172 2:-3.924625 
-10 1:0.28589844 2:-4.4878125 
-0.025433459947666798 1:0.21323437 2:-1.5406875 
-3.812120856873308 1:0.15975391 2:-3.0234375 
-1.766187737384119 1:0.28926172 2:-5.3529375 
-10 1:0.42748242 2:-5.4629375 
-10 1:0.26412695 2:-4.2101875 
-10 1:0.23656641 2:-5.13225 
-10 1:0.27323437 2:-4.4154375 
-10 1:0.34186523 2:-5.8350625 
-10 1:0.33609766 2:-5.6264375 
-4.7348790580538909 1:0.30874805 2:-3.3035 
-3.6425501308153452 1:0.21717383 2:-4.7938125 
-10 1:0.16924805 2:-2.906375 
-10 1:0.19935352 2:-3.559875 
-10 1:0.32763281 2:-5.387875 
-10 1:0.21848242 2:-4.455375 
-10 1:0.25669336 2:-4.6960625 
-10 1:0.36110156 2:-4.7130625 
-10 1:0.23461328 2:-5.1766875 
-10 1:0.16704688 2:-3.42775 
-10 1:0.29257812 2:-4.753 
-10 1:0.32137891 2:-4.984375 
-10 1:0.31054102 2:-4.9661875 
-10 1:0.34402344 2:-5.874 
-10 1:0.36026172 2:-5.9035625 
-10 1:0.31123828 2:-5.179625 
-10 1:0.29635937 2:-5.16975 
-10 1:0.35174805 2:-4.259375 
-10 1:0.28732031 2:-5.3385 
-10 1:0.20204688 2:-3.360375 
-10 1:0.32543164 2:-5.8575625 
-10 1:0.26016406 2:-4.3838125 
-10 1:0.24214063 2:-4.5038125 
-2.4734918937729411 1:0.25452539 2:-1.412375 
-10 1:0.35918359 2:-5.1936875 
-10 1:0.30384375 2:-4.66825 
-10 1:0.34343359 2:-4.500875 
-0.083177127047664251 1:0.29291016 2:-3.6591875 
-0.91607720993975272 1:0.40568359 2:-4.743125 
-10 1:0.24619141 2:-4.186875 
-10 1:0.28493359 2:-4.7819375 
-10 1:0.20339844 2:-3.30575 
-10 1:0.26120508 2:-4.383875 
-10 1:0.11894727 2:-2.755 
-10 1:0.11764648 2:-2.7798125 
-10 1:0.33430664 2:-3.9859375 
-10 1:0.20068359 2:-3.530625 
-10 1:0.22642578 2:-3.8066875 
-10 1:0.27418945 2:-5.417375 
-10 1:0.35058203 2:-5.5184375 
-10 1:0.37045117 2:-4.9888125 
-10 1:0.18362305 2:-3.7599375 
-10 1:0.15335352 2:-3.1814375 
-10 1:0.21359375 2:-2.771125 
-0.093411976822048659 1:0.49497656 2:-2.2388125 
-8.6759349859753261 1:0.32026367 2:-6.1031875 
-10 1:0.30499414 2:-5.6374375 
-9.3537768866016346 1:0.26500391 2:-5.61825 
-10 1:0.27932617 2:-4.1611875 
-10 1:0.16963086 2:-3.181375 
-10 1:0.30602148 2:-4.477625 
-10 1:0.1920293 2:-3.27425 
-10 1:0.18700195 2:-3.6405 
-10 1:0.31383203 2:-5.590375 
-0.88765631673648782 1:0.2462207 2:-5.1228125 
-10 1:0.33367383 2:-4.751375 
-10 1:0.36703125 2:-4.044 
-10 1:0.22922852 2:-3.8128125 
-10 1:0.20861523 2:-3.512375 
-10 1:0.10699219 2:-1.968375 
-10 1:0.21941992 2:-4.12225 
-10 1:0.13674023 2:-2.810375 
-10 1:0.35580078 2:-6.299125 
-10 1:0.20377734 2:-3.9136875 
-10 1:0.20486328 2:-4.3973125 
-10 1:0.25088867 2:-4.781375 
-10 1:0.37479883 2:-5.386375 
-10 1:0.39944727 2:-5.0774375 
-10 1:0.23155859 2:-4.342375 
-10 1:0.17587695 2:-3.6184375 
-10 1:0.22451172 2:-4.5419375 
-1.9189093851784285 1:0.51403125 2:-6.2425 
-10 1:0.15904297 2:-3.7005625 
-10 1:0.29289063 2:-5.652375 
-10 1:0.17999805 2:-3.188375 
-10 1:0.25246094 2:-4.52725 
-10 1:0.31454688 2:-4.9918125 
-10 1:0.181125 2:-3.933125 
-10 1:0.28202344 2:-4.859375 
-10 1:0.34985547 2:-5.783125 
-10 1:0.26501562 2:-3.754625 
-10 1:0.36413867 2:-6.3994375 
-10 1:0.27821289 2:-3.98975 
-0.0171446581642614 1:0.093474609 2:-2.29 
-1.7648493401405159 1:0.084939453 2:-1.6044375 
-10 1:0.37326563 2:-4.7308125 
-10 1:0.27263477 2:-4.8355625 
-10 1:0.2355625 2:-5.174625 
-10 1:0.26767578 2:-4.910625 
-10 1:0.29992578 2:-5.9721875 
-10 1:0.22961328 2:-4.3941875 
-10 1:0.13747656 2:-2.793375 
-10 1:0.23004102 2:-4.380125 
-10 1:0.32567383 2:-4.7173125 
-10 1:0.35895312 2:-5.38 
-10 1:0.24961133 2:-3.538375 
-10 1:0.1675918 2:-3.143 
-10 1:0.2641543 2:-5.26025 
-10 1:0.19154492 2:-4.0826875 
-10 1:0.15425 2:-3.3069375 
-10 1:0.25042773 2:-3.641875 
-10 1:0.3282168 2:-6.19075 
-10 1:0.26534961 2:-4.584875 
-10 1:0.2504668 2:-3.255625 
-10 1:0.27760547 2:-5.098 
-10 1:0.32529102 2:-3.8465 
-10 1:0.2292832 2:-3.793375 
-10 1:0.35650586 2:-5.135 
-10 1:0.34943555 2:-4.5045 
-5.9807581729929886 1:0.24851172 2:-3.62425 
-10 1:0.35855859 2:-5.03625 
-3.2334562878452795 1:0.18033008 2:-2.7246875 
-10 1:0.13869727 2:-2.8969375 
-10 1:0.27758789 2:-5.3843125 
-10 1:0.26486133 2:-3.8655625 
-10 1:0.28044922 2:-4.8344375 
-10 1:0.31078125 2:-6.1899375 
-10 1:0.29430664 2:-3.5336875 
-10 1:0.26394336 2:-5.5184375 
-5.2651209419461091 1:0.31682031 2:-3.3043125 
-10 1:0.24296484 2:-4.9265625 
-10 1:0.24733008 2:-3.39625 
-10 1:0.31826172 2:-5.8076875 
-10 1:0.32263086 2:-5.6656875 
-10 1:0.27326758 2:-5.4265 
-10 1:0.32995703 2:-5.0885625 
-10 1:0.37594727 2:-4.9313125 
-3.0975228418112675 1:0.1095 2:-2.187375 
-10 1:0.19799414 2:-3.060125 
-10 1:0.30346094 2:-5.1415 
-0.50527525798398887 1:0.13230078 2:-1.8993125 
-10 1:0.19660547 2:-3.6106875 
-10 1:0.21083008 2:-3.9205 
-6.7665437121547196 1:0.20242773 2:-2.74125 
-0.28157433251684699 1:0.44400781 2:-5.9770625 
-10 1:0.38823047 2:-3.969 
-10 1:0.25951953 2:-5.152625 
-10 1:0.17951758 2:-3.3945 
-10 1:0.39941406 2:-5.231875 
-9.9999999999999982 1:0.3675957 2:-5.8905625 
-10 1:0.10350391 2:-2.0674375 
-10 1:0.25626172 2:-5.3840625 
-10 1:0.18873633 2:-3.803375 
-10 1:0.25664063 2:-5.19725 
-10 1:0.28025586 2:-5.4515 
-10 1:0.27291406 2:-4.54875 
-10 1:0.17387305 2:-3.586375 
-0.79617495657306203 1:0.30857031 2:-6.0686875 
-10 1:0.28594531 2:-5.5890625 
-10 1:0.27118945 2:-3.6079375 
-10 1:0.39553906 2:-4.077875 
-10 1:0.32921094 2:-5.0735625 
-10 1:0.2369082 2:-3.1478125 
-10 1:0.14607617 2:-3.1498125 
-0.26975540627962563 1:0.091326172 2:-2.0931875 
-10 1:0.24838867 2:-5.320625 
-0.43956576228414129 1:0.33908984 2:-2.6120625 
-10 1:0.259125 2:-3.7574375 
-10 1:0.34759375 2:-5.3243125 
-10 1:0.1895625 2:-3.3044375 
-10 1:0.28778516 2:-4.2623125 
-10 1:0.28263867 2:-4.5860625 
-10 1:0.40020312 2:-5.3531875 
-10 1:0.33515234 2:-4.7294375 
-0.11372631557088049 1:0.12900781 2:-1.6446875 
-10 1:0.25419531 2:-4.5434375 
-10 1:0.2731875 2:-5.0144375 
-10 1:0.23999414 2:-4.667625 
-10 1:0.18332617 2:-3.5046875 
-7.0885032291142638 1:0.25603906 2:-5.0956875 
-10 1:0.28213672 2:-5.9331875 
-10 1:0.26322461 2:-5.4883125 
-10 1:0.18266797 2:-3.69325 
-1.3862354277638722 1:0.39812109 2:-4.224375 
-10 1:0.21846094 2:-4.3505 
-10 1:0.27809375 2:-4.651125 
-10 1:0.32939453 2:-4.4934375 
-10 1:0.30614453 2:-5.2485625 
-10 1:0.30364453 2:-5.5271875 
-10 1:0.26226563 2:-4.5395 
-10 1:0.47303906 2:-4.5331875 
-10 1:0.30972266 2:-5.4668125 
-10 1:0.3223125 2:-4.3729375 
-10 1:0.27334961 2:-5.794 
-10 1:0.26363281 2:-4.3346875 
-10 1:0.22276758 2:-4.9826875 
-0.6462231133983658 1:0.2627793 2:-5.64825 
-10 1:0.41820312 2:-4.4476875 
-7.5260334651654173 1:0.3845 2:-6.7055 
-10 1:0.34606445 2:-6.244125 
-10 1:0.37111523 2:-5.247875 
-10 1:0.22181641 2:-4.1625625 
-10 1:0.14654883 2:-2.5340625 
-0.23729001426118945 1:0.45496094 2:-4.1976875 
-10 1:0.34149805 2:-4.603125 
-10 1:0.25398438 2:-4.262 
-10 1:0.24900586 2:-5.3428125 
-10 1:0.36598828 2:-5.2701875 
-10 1:0.31229102 2:-6.0148125 
-10 1:0.25075391 2:-3.267625 
-10 1:0.39750977 2:-6.3005625 
-10 1:0.29013086 2:-5.3005625 
-10 1:0.2893125 2:-4.126625 
-10 1:0.29880859 2:-4.723125 
-4.9923061498378853 1:0.35639844 2:-5.66275 
-10 1:0.14205078 2:-3.3005 
-10 1:0.35803711 2:-4.82725 
-10 1:0.32357617 2:-5.043375 
-10 1:0.3109375 2:-4.4159375 
-10 1:0.23346289 2:-4.9045 
-10 1:0.25745312 2:-3.471875 
-6.1878791431266915 1:0.17372461 2:-3.02175 
-10 1:0.25678906 2:-4.986875 
-10 1:0.24727539 2:-4.8033125 
-10 1:0.30724805 2:-5.9245625 
-10 1:0.22756836 2:-4.4533125 
-10 1:0.079349609 2:-1.6896875 
-10 1:0.27801367 2:-5.795875 
-10 1:0.31170117 2:-5.809375 
-10 1:0.37664063 2:-5.6056875 
-0.0041844343585250594 1:0.20828906 2:-3.7574375 
-4.0192418270070114 1:0.25697852 2:-3.605125 
-10 1:0.25155859 2:-4.918375 
-0.066214466314092918 1:0.14902148 2:-2.405 
-10 1:0.21791797 2:-3.83625 
-3.9969490357412103 1:0.16345508 2:-1.4323125 
-10 1:0.36560547 2:-5.119625 
-10 1:0.46249414 2:-4.082 
-10 1:0.2394375 2:-4.736625 
-10 1:0.31440039 2:-5.4684375 
-10 1:0.36061719 2:-4.7583125 
-10 1:0.29483008 2:-4.1045625 
-10 1:0.33874023 2:-3.620125 
-10 1:0.20291211 2:-3.866875 
-2.5591131465095436 1:0.11080273 2:-1.3539375 
-10 1:0.2375957 2:-3.8353125 
-10 1:0.1807832 2:-4.0069375 
-10 1:0.26061914 2:-4.7349375 
-8.6271731637694415 1:0.35224805 2:-6.4756875 
-10 1:0.22673242 2:-4.5121875 
-10 1:0.37478125 2:-5.4715 
-10 1:0.31102734 2:-4.2288125 
-10 1:0.32268945 2:-6.0975 
-10 1:0.43275195 2:-5.0771875 
-2.4382522828588598 1:0.39480273 2:-5.77025 
-10 1:0.30610937 2:-4.347125 
-10 1:0.31540625 2:-5.0003125 
-10 1:0.21353125 2:-4.21425 
-10 1:0.19082227 2:-4.2091875 
-10 1:0.2089043 2:-4.3419375 
-10 1:0.22978125 2:-3.6273125 
-10 1:0.29301563 2:-5.014 
-10 1:0.20644336 2:-4.13675 
-10 1:0.23423633 2:-3.7383125 
-10 1:0.29637891 2:-4.25375 
-0.51410663492601782 1:0.11933008 2:-1.317 
-10 1:0.31641211 2:-5.467875 
-10 1:0.30863281 2:-4.3255 
-10 1:0.26362891 2:-5.6733125 
-10 1:0.33097266 2:-4.5104375 
-10 1:0.23752344 2:-3.9145 
-10 1:0.47638086 2:-5.2835625 
-10 1:0.23275195 2:-4.741375 
-10 1:0.38733984 2:-6.4479375 
-10 1:0.26600391 2:-5.95225 
-7.2758956568434563 1:0.20973633 2:-4.038875 
-10 1:0.11874023 2:-2.7379375 
-10 1:0.16216797 2:-3.3156875 
-10 1:0.11204297 2:-2.446125 
-10 1:0.16414062 2:-2.75425 
-10 1:0.19323633 2:-3.479375 
-10 1:0.31258008 2:-5.162375 
-0.21083755622992761 1:0.40545312 2:-6.2274375 
-10 1:0.305625 2:-5.8485 
-2.3616275701664331 1:0.32716211 2:-4.7526875 
-10 1:0.26438477 2:-4.9513125 
-10 1:0.23612891 2:-4.33225 
-9.3976277174499145 1:0.45595703 2:-5.719625 
-10 1:0.330375 2:-4.9874375 
-10 1:0.23917187 2:-5.222875 
-10 1:0.19100977 2:-3.729375 
-10 1:0.41617578 2:-5.48325 
-10 1:0.30253906 2:-5.967375 
-10 1:0.23612695 2:-3.9413125 
-10 1:0.30057422 2:-5.98275 
-10 1:0.26789844 2:-4.5989375 
-10 1:0.23817383 2:-3.561625 
-10 1:0.35631055 2:-5.519 
-10 1:0.34957617 2:-4.8681875 
-10 1:0.32593555 2:-5.2068125 
-10 1:0.42124023 2:-5.3928125 
-10 1:0.35097461 2:-5.6483125 
-10 1:0.13848047 2:-2.4273125 
-10 1:0.35628711 2:-6.539625 
-10 1:0.34576953 2:-4.79525 
-10 1:0.34544336 2:-5.7846875 
-10 1:0.34817773 2:-5.007625 
-10 1:0.30280664 2:-4.5919375 
-10 1:0.34011523 2:-5.440375 
-10 1:0.41813477 2:-4.671875 
-10 1:0.46185352 2:-4.74475 
-10 1:0.23841602 2:-4.7885625 
-10 1:0.22175977 2:-4.1065625 
-10 1:0.25657617 2:-4.3558125 
-10 1:0.15406055 2:-2.5658125 
-10 1:0.24148242 2:-4.3440625 
-10 1:0.27910352 2:-3.861875 
-10 1:0.14902539 2:-3.169875 
-10 1:0.36222656 2:-4.23425 
-10 1:0.17206445 2:-3.643125 
-10 1:0.25103711 2:-5.075625 
-10 1:0.26028125 2:-5.3745 
-0.75289381473613848 1:0.43997461 2:-1.7660625 
-10 1:0.30176563 2:-5.1461875 
-10 1:0.32823438 2:-4.709125 
-10 1:0.30285156 2:-5.0973125 
-10 1:0.22273828 2:-3.67025 
-10 1:0.27653711 2:-4.9450625 
-10 1:0.37617578 2:-6.118875 
-10 1:0.21400977 2:-3.7804375 
-10 1:0.24474805 2:-3.388625 
-6.9024771581887325 1:0.11748047 2:-2.1705 
-10 1:0.16383984 2:-2.9104375 
-10 1:0.32654883 2:-4.3288125 
-10 1:0.28470117 2:-5.518375 
-6.4710421656513457 1:0.36478711 2:-5.8079375 
-10 1:0.29326953 2:-4.7504375 
-10 1:0.29875586 2:-5.5695 
-7.560855072005773 1:0.45973828 2:-3.94875 
-0.094743212460468781 1:0.13844727 2:-3.4694375 
-10 1:0.19876758 2:-3.76275 
-0.011721141701277605 1:0.33263867 2:-3.347125 
-10 1:0.31997461 2:-4.7644375 
-10 1:0.19928711 2:-2.6759375 
-10 1:0.17244727 2:-3.071125 
-10 1:0.15866602 2:-2.873375 
-10 1:0.4510293 2:-4.106875 
-10 1:0.24804883 2:-4.5755625 
-10 1:0.1914668 2:-3.376375 
-10 1:0.31833984 2:-3.9101875 
-10 1:0.30597656 2:-4.17525 
-10 1:0.25021875 2:-4.4340625 
-1.0907055514897948 1:0.32796484 2:-5.77075 
-2.7241043431565442 1:0.19756445 2:-4.0320625 
-10 1:0.22643555 2:-2.9925625 
-10 1:0.2424082 2:-4.52975 
-10 1:0.27652734 2:-5.0469375 
-10 1:0.24790039 2:-4.9433125 
-10 1:0.16420898 2:-2.2751875 
-0.02019591218241007 1:0.46969531 2:-2.3004375 
-10 1:0.25593945 2:-4.45375 
-10 1:0.18900781 2:-3.5194375 
-10 1:0.23642187 2:-4.082625 
-10 1:0.26298828 2:-4.5124375 
-10 1:0.22048047 2:-4.1625 
-10 1:0.32970117 2:-4.3779375 
-10 1:0.34828516 2:-4.4009375 
-10 1:0.24691016 2:-5.0823125 
-10 1:0.33158594 2:-4.5533125 
-10 1:0.28833789 2:-5.0376875 
-10 1:0.30314062 2:-5.2896875 
-10 1:0.20539453 2:-4.3329375 
-10 1:0.24421875 2:-5.166 
-10 1:0.31304102 2:-5.107625 
-10 1:0.27183984 2:-5.1100625 
-10 1:0.28335937 2:-5.64725 
-10 1:0.42770703 2:-5.0911875 
-10 1:0.41218555 2:-5.1688125 
-10 1:0.18293945 2:-3.1890625 
-0.14937922644398699 1:0.20134375 2:-1.7034375 
-10 1:0.24061133 2:-4.476625 
-10 1:0.23668555 2:-3.42625 
-10 1:0.38399023 2:-4.735 
-10 1:0.31185352 2:-4.9824375 
-10 1:0.16992578 2:-3.4936875 
-10 1:0.31124219 2:-6.1073125 
-10 1:0.328875 2:-6.424 
-10 1:0.16107227 2:-2.714625 
-10 1:0.2645 2:-3.494875 
-10 1:0.091894531 2:-1.8661875 
-10 1:0.35416211 2:-5.13225 
-10 1:0.35437891 2:-3.67175 
-10 1:0.17662891 2:-4.19575 
-10 1:0.32701953 2:-4.8238125 
-10 1:0.3604707 2:-4.7850625 
-10 1:0.30747852 2:-5.424875 
-10 1:0.27879883 2:-4.7460625 
-10 1:0.31470898 2:-5.022375 
-10 1:0.41917187 2:-5.483375 
-10 1:0.28870508 2:-4.330625 
-10 1:0.18275195 2:-3.747 
-6.2204902957898955 1:0.35266797 2:-6.0053125 
-10 1:0.27406641 2:-5.22475 
-10 1:0.23213672 2:-4.9410625 
-10 1:0.37524414 2:-5.9794375 
-10 1:0.15342969 2:-3.0081875 
-10 1:0.17957813 2:-3.8024375 
-10 1:0.20745508 2:-3.2791875 
-10 1:0.26777344 2:-3.47225 
-10 1:0.39512695 2:-4.9090625 
-10 1:0.27879492 2:-3.8149375 
-10 1:0.19374805 2:-3.6446875 
-10 1:0.36837695 2:-6.2575 
-10 1:0.36276172 2:-4.9273125 
-9.1818692495606555 1:0.51585742 2:-6.6545 
-10 1:0.38552344 2:-4.6464375 
-10 1:0.36358984 2:-4.906375 
-10 1:0.35055469 2:-5.5453125 
-10 1:0.3703457 2:-6.1079375 
-2.0238404541492487 1:0.25410547 2:-5.11025 
-2.1511257503132719 1:0.18694922 2:-1.42925 
-10 1:0.33188672 2:-4.5985 
-10 1:0.22953516 2:-4.7948125 
-10 1:0.20576172 2:-4.013875 
-10 1:0.23111133 2:-4.5469375 
-10 1:0.2359375 2:-4.10925 
-10 1:0.18862109 2:-3.5570625 
-10 1:0.2521875 2:-3.2321875 
-10 1:0.28647266 2:-5.2295 
-10 1:0.23383984 2:-4.118375 
-10 1:0.32278711 2:-6.0531875 
-10 1:0.39734961 2:-4.196375 
-10 1:0.36524414 2:-5.6711875 
-10 1:0.25723242 2:-3.903625 
-10 1:0.21464844 2:-5.0144375 
-10 1:0.30128711 2:-4.9530625 
-10 1:0.34190039 2:-5.7218125 
-10 1:0.26591016 2:-3.618625 
-0.039360820197693672 1:0.34071484 2:-2.841 
-10 1:0.28653711 2:-3.8649375 
-10 1:0.43819336 2:-6.483 
-10 1:0.32016211 2:-4.0165625 
-10 1:0.30686133 2:-6.5006875 
-10 1:0.30235937 2:-5.8390625 
-10 1:0.3371582 2:-3.8149375 
-10 1:0.29567383 2:-3.2821875 
-10 1:0.2792832 2:-4.56025 
-10 1:0.33588672 2:-4.1898125 
-0.005777588125438271 1:0.30680469 2:-5.958625 
-10 1:0.3889668 2:-4.9733125 
-10 1:0.26068359 2:-4.4959375 
-10 1:0.24467969 2:-4.843 
-10 1:0.50227539 2:-3.744 
-10 1:0.37833008 2:-5.1865 
-10 1:0.32063867 2:-4.3848125 
-10 1:0.35899219 2:-4.406625 
-1.0315894266851613 1:0.39318359 2:-3.0641875 
-10 1:0.16157031 2:-3.1691875 
-10 1:0.19947461 2:-4.2119375 
-10 1:0.33832227 2:-4.7073125 
-10 1:0.38016016 2:-4.81675 
-10 1:0.44399023 2:-4.749625 
